{
  "input_size": 10,
  "hidden_size": 16,
  "output_size": 4,
  "W1": [
    [
      -0.23280641436576843,
      0.1235593631863594,
      -0.4433400332927704,
      -0.31952571868896484,
      -0.7450648546218872,
      0.5047873854637146,
      -0.2114638388156891,
      0.7147148251533508,
      -0.5704189538955688,
      -0.29400160908699036,
      0.31670257449150085,
      -0.30012020468711853,
      -0.7718992233276367,
      0.022038938477635384,
      0.00820642989128828,
      0.19199565052986145
    ],
    [
      0.2533307373523712,
      -0.47635605931282043,
      -0.3644878566265106,
      0.892842710018158,
      0.48150521516799927,
      0.17269861698150635,
      -0.34745559096336365,
      -0.19901253283023834,
      -0.24343150854110718,
      -0.33536675572395325,
      -0.3527391254901886,
      -0.3474438488483429,
      0.006565570831298828,
      -0.3071059286594391,
      -0.09882216900587082,
      -0.25768300890922546
    ],
    [
      0.2951170802116394,
      -0.19271409511566162,
      0.0005905199213884771,
      -0.13946421444416046,
      0.635898232460022,
      -0.14975817501544952,
      0.5210273265838623,
      -0.2668771743774414,
      0.178350031375885,
      0.24213311076164246,
      0.18250826001167297,
      -0.12827013432979584,
      0.2729359567165375,
      -0.21007876098155975,
      0.51520836353302,
      -0.3660651445388794
    ],
    [
      0.03580034524202347,
      -0.07982528954744339,
      -0.3923884332180023,
      0.2332584410905838,
      -0.0687151625752449,
      0.640544056892395,
      -0.39437928795814514,
      0.7415715456008911,
      0.40463197231292725,
      -0.6056308746337891,
      0.4078812599182129,
      0.11900871247053146,
      -0.3705845773220062,
      0.8833763599395752,
      -0.3670879900455475,
      0.19321061670780182
    ],
    [
      0.0733659490942955,
      0.2652904689311981,
      -0.207377627491951,
      0.14183107018470764,
      -0.05354816094040871,
      0.300992488861084,
      0.2717365324497223,
      -0.11721841990947723,
      0.20703622698783875,
      -0.14449216425418854,
      0.15597014129161835,
      -0.28390637040138245,
      -0.44322338700294495,
      -0.19110329449176788,
      -0.4978348910808563,
      0.17702005803585052
    ],
    [
      0.6256604194641113,
      -0.373702734708786,
      -0.4998164474964142,
      -0.11329787969589233,
      0.49355512857437134,
      0.05522272735834122,
      -0.37934231758117676,
      0.26049935817718506,
      -0.05338841304183006,
      0.3844115734100342,
      -0.15306736528873444,
      -0.054007433354854584,
      -0.11788644641637802,
      0.0074534108862280846,
      -0.0018310628365725279,
      -0.1494016796350479
    ],
    [
      0.37972551584243774,
      -0.16692055761814117,
      -0.019647853448987007,
      0.09833762794733047,
      0.28430649638175964,
      0.6532077193260193,
      -0.1585969626903534,
      0.12728027999401093,
      0.04360257461667061,
      0.037427425384521484,
      -0.6500022411346436,
      0.10073776543140411,
      0.2690258026123047,
      0.19378097355365753,
      -0.5615188479423523,
      -0.5362963676452637
    ],
    [
      0.8358832597732544,
      -0.04773624613881111,
      0.06069439277052879,
      0.13304917514324188,
      -0.3938778042793274,
      0.21671681106090546,
      0.27181294560432434,
      0.5110493898391724,
      0.3124698996543884,
      -0.38256117701530457,
      -0.5676899552345276,
      -0.4185382127761841,
      -0.32709193229675293,
      0.2155478596687317,
      -0.41717439889907837,
      -0.6446773409843445
    ],
    [
      -0.452338308095932,
      -0.43743062019348145,
      0.23894107341766357,
      0.5053480267524719,
      0.4054903984069824,
      0.11438652873039246,
      0.25981733202934265,
      -0.17098070681095123,
      0.11808785051107407,
      0.5932022333145142,
      -0.6779071092605591,
      -0.27480053901672363,
      -0.8726063966751099,
      0.016422195360064507,
      -0.06288350373506546,
      -0.8909552097320557
    ],
    [
      -0.1725054234266281,
      -0.2474316656589508,
      -0.12262440472841263,
      0.003430540207773447,
      0.33841362595558167,
      -0.42337873578071594,
      0.05897413194179535,
      -0.15735696256160736,
      0.4536992311477661,
      0.6115760803222656,
      0.14927591383457184,
      0.18627244234085083,
      -0.4274643659591675,
      -0.036824632436037064,
      -0.24071188271045685,
      -0.5565412044525146
    ]
  ],
  "b1": [
    0.30017295479774475,
    0.2939002215862274,
    0.08364799618721008,
    0.24640117585659027,
    0.41379210352897644,
    0.15975011885166168,
    -0.016374187543988228,
    -0.10036703199148178,
    0.10719136893749237,
    -0.03706509619951248,
    0.3898361921310425,
    0.20261207222938538,
    0.3990870714187622,
    -0.08037443459033966,
    -0.2619522511959076,
    0.49024054408073425
  ],
  "W2": [
    [
      0.462940514087677,
      -0.5295335054397583,
      0.27467280626296997,
      -0.32878777384757996
    ],
    [
      -0.7613614797592163,
      0.25121891498565674,
      0.13841797411441803,
      0.5197262167930603
    ],
    [
      0.04154235124588013,
      0.4446900188922882,
      -0.8461624979972839,
      0.0916922464966774
    ],
    [
      0.6022971272468567,
      -0.339897483587265,
      0.4967132806777954,
      -0.33729079365730286
    ],
    [
      -0.6587954759597778,
      -0.5308098793029785,
      0.9977020025253296,
      0.18348658084869385
    ],
    [
      0.8575262427330017,
      0.40465089678764343,
      -0.48403066396713257,
      -0.968302845954895
    ],
    [
      -0.6243366003036499,
      0.34218162298202515,
      -0.47099238634109497,
      0.3384547531604767
    ],
    [
      0.06389488279819489,
      0.6619694828987122,
      -0.49582117795944214,
      -0.306430846452713
    ],
    [
      -0.4137246608734131,
      -0.3036216199398041,
      0.3978024125099182,
      0.4633042514324188
    ],
    [
      0.15407761931419373,
      0.29965630173683167,
      0.6142851114273071,
      -0.7976164817810059
    ],
    [
      -0.21101737022399902,
      0.6938064098358154,
      -0.4145694673061371,
      0.6182035207748413
    ],
    [
      0.14185018837451935,
      -0.20471768081188202,
      -0.001101127010770142,
      0.4567193388938904
    ],
    [
      -0.22702263295650482,
      0.5286586880683899,
      0.46633684635162354,
      0.5089607834815979
    ],
    [
      -0.22350433468818665,
      0.14642615616321564,
      -0.17596811056137085,
      -0.378833532333374
    ],
    [
      0.31190240383148193,
      0.5668461918830872,
      -0.6500921845436096,
      -0.07537133246660233
    ],
    [
      -0.4669325351715088,
      0.10407599806785583,
      -0.18808670341968536,
      0.4411890208721161
    ]
  ],
  "b2": [
    -0.10394469648599625,
    -0.21854086220264435,
    0.2691815197467804,
    0.10999491065740585
  ],
  "mean": [
    -60.867867867867865,
    -73.26276276276276,
    -54.048048048048045,
    -69.22072072072072,
    -80.14714714714715,
    -80.63663663663664,
    -81.95945945945945,
    -82.86786786786787,
    -98.36036036036036,
    -98.36036036036036
  ],
  "std": [
    22.120112068352512,
    14.790504853066478,
    17.822214369115642,
    11.6067996829428,
    11.946677046854118,
    11.870868401920509,
    11.499471551078432,
    11.051433968101597,
    4.2148588713711135,
    4.2148588713711135
  ],
  "ap_order": [
    "FE:B5:B5:CB:A5:CA",
    "EE:2E:F4:DA:C7:58",
    "3E:5B:88:C7:F1:62",
    "82:9F:F5:13:4A:77",
    "C2:69:47:51:C4:C4",
    "B0:1F:8C:1F:78:C0",
    "B0:1F:8C:1F:78:C4",
    "9A:C2:18:DC:D6:08",
    "00:00:00:00:00:00",
    "00:00:00:00:00:00"
  ],
  "locations": [
    "Zone 1",
    "Zone 2",
    "Zone 3",
    "Zone 4"
  ],
  "accuracy": 0.8690476417541504,
  "training_samples": 333,
  "test_samples": 84,
  "source": "MQTT direct"
}